{"inputCount":6,"outputCount":6,"hiddenLayerCount":2,"hiddenNeuronCount":8,"useSoftmax":false,"initRange":1.0,"W":[{"rows":6,"cols":8,"data":[-0.4082754850387573,-0.945772647857666,-0.3563169240951538,-0.06394422054290772,-0.30248773097991946,-0.5276703834533691,0.15266048908233643,-0.550833523273468,-0.801577091217041,-0.09551528841257096,0.07349103689193726,0.6926736831665039,-0.9158408641815186,0.2562624216079712,-0.421834260225296,0.23061197996139527,0.755141019821167,0.98793625831604,-0.174739271402359,0.962668776512146,-0.005028367042541504,0.67561274766922,0.9312129020690918,-1.3911693096160889,0.8943788409233093,-0.30131542682647707,-0.7363454103469849,-0.5988946557044983,-0.7256060838699341,-0.16529026627540589,-0.5156227350234985,0.4903208911418915,0.7781286239624023,0.5982170104980469,0.7875659465789795,-1.060104489326477,-0.5077614784240723,-0.8490987420082092,-0.9879299402236939,-0.1323148012161255,0.31741857528686526,-0.9430184364318848,-0.40883657336235049,0.8592703938484192,0.5036375522613525,-0.6141186952590942,-0.7244751453399658,0.11028584837913513]},{"rows":8,"cols":8,"data":[-0.5344067811965942,0.6130603551864624,0.9350281357765198,0.5609713792800903,-0.29458144307136538,0.405956506729126,0.2802455723285675,0.7223020792007446,0.796015739440918,-0.774238109588623,0.9050721526145935,-0.051360756158828738,0.1499682366847992,0.07358768582344055,1.050179362297058,0.47769448161125185,0.5808312892913818,-0.30884850025177,0.9913177490234375,-0.39204251766204836,-0.7204375267028809,-0.41401171684265139,-0.4214598536491394,0.6425830125808716,0.4138345420360565,0.8775839805603027,0.9486598968505859,-0.0838727056980133,-0.4405885934829712,0.5800352096557617,-0.7550410032272339,0.23108327388763429,0.08392965793609619,0.36694571375846865,-0.8264248371124268,-0.26560962200164797,1.1481086015701295,0.5402653217315674,-0.19671738147735597,0.23072171211242677,0.4037754237651825,-0.7265801429748535,0.16708576679229737,-0.18791064620018006,0.7987890243530273,-0.6793044209480286,0.011722862720489502,0.04570209980010986,0.16175758838653565,-0.8299688100814819,0.19001710414886475,0.88446044921875,-0.2659764885902405,0.2383042275905609,0.7536108493804932,-0.36077752709388735,0.5082143545150757,0.6304588317871094,-0.19793522357940675,-0.5342957973480225,0.17649567127227784,0.13043637573719026,-1.077298641204834,0.4544159770011902]},{"rows":8,"cols":6,"data":[0.14133083820343018,0.01953328400850296,-0.5416765213012695,-0.13520628213882447,-0.7066648006439209,0.4140557050704956,-0.5576342940330505,0.8821744322776794,0.3962506949901581,0.4815050959587097,-0.7916216850280762,-0.15384018421173097,0.5835105180740356,-0.7965380549430847,-0.3537184000015259,0.6046285629272461,-0.9586868286132813,0.6288073062896729,0.2243889570236206,0.914218544960022,0.7467391490936279,-0.46933209896087649,-0.9914393424987793,-0.9540369510650635,0.09610208123922348,-0.8466349840164185,-0.17811256647109986,-0.21530339121818543,-1.009140133857727,-0.7044579982757568,0.6897702217102051,-0.019499868154525758,0.5816631317138672,-0.10588657855987549,-0.39910802245140078,-0.3734339475631714,0.8616325855255127,0.2911275625228882,0.37470099329948428,-0.36894258856773379,0.1445719599723816,0.3573368191719055,-0.2728463411331177,-1.0503169298171998,0.637448787689209,-0.2627936601638794,0.07973241806030274,-0.8415595293045044]}]}