{"inputCount":6,"outputCount":6,"hiddenLayerCount":2,"hiddenNeuronCount":8,"useSoftmax":false,"initRange":1.0,"W":[{"rows":6,"cols":8,"data":[-0.4082754850387573,-0.945772647857666,-0.14424359798431397,-0.03565490245819092,-0.30248773097991946,-0.5276703834533691,0.15266048908233643,-0.550833523273468,-0.801577091217041,-0.09551528841257096,0.44191572070121767,0.8668901920318604,-0.9158408641815186,-0.0073403120040893559,-0.5119655728340149,0.23061197996139527,0.755141019821167,0.98793625831604,-0.174739271402359,0.962668776512146,-0.005028367042541504,0.6349716782569885,0.9312129020690918,-1.1657241582870484,0.8943788409233093,-0.30131542682647707,-0.7363454103469849,-0.5988946557044983,-0.9513518810272217,-0.0026448965072631838,-0.09420382976531983,0.4903208911418915,0.7781286239624023,0.5220932960510254,0.7875659465789795,-1.060104489326477,-0.6471641063690186,-0.8490987420082092,-0.9879299402236939,-0.1323148012161255,0.31741857528686526,-0.9430184364318848,-0.3659588098526001,0.8592703938484192,0.632350742816925,-0.7622216939926148,-0.7244751453399658,0.40462538599967959]},{"rows":8,"cols":8,"data":[-0.6303691864013672,0.6130603551864624,0.9350281357765198,0.5609713792800903,-0.4037514925003052,0.405956506729126,0.2802455723285675,0.7223020792007446,0.796015739440918,-0.774238109588623,0.7646169662475586,-0.051360756158828738,0.1499682366847992,0.04220688343048096,0.8203983306884766,0.47769448161125185,0.5808312892913818,-0.30884850025177,0.9913177490234375,-0.39204251766204836,-0.7204375267028809,-0.3878976106643677,-0.37753045558929446,0.6425830125808716,0.4138345420360565,0.8775839805603027,1.0750970840454102,0.09672242403030396,-0.17957156896591187,0.5800352096557617,-0.7550410032272339,0.23108327388763429,0.08392965793609619,0.36694571375846865,-0.6241658329963684,-0.26560962200164797,0.6511247158050537,0.5402653217315674,-0.19671738147735597,0.23072171211242677,0.4037754237651825,-0.7265801429748535,0.16708576679229737,-0.18791064620018006,0.6806118488311768,-0.6793044209480286,0.011722862720489502,0.04570209980010986,0.16175758838653565,-0.8316817283630371,0.2583443820476532,0.88446044921875,-0.23920786380767823,0.2383042275905609,0.46606990694999697,-0.3266240358352661,0.5082143545150757,0.6304588317871094,-0.19793522357940675,-0.5342957973480225,0.17649567127227784,0.13043637573719026,-1.077298641204834,0.4544159770011902]},{"rows":8,"cols":6,"data":[0.14133083820343018,0.01953328400850296,-0.6517201662063599,-0.11462625861167908,-0.7066648006439209,0.5506777763366699,-0.5576342940330505,0.8821744322776794,0.3962506949901581,0.32008618116378786,-0.7916216850280762,-0.15384018421173097,0.5835105180740356,-0.747319221496582,-0.3537184000015259,0.6046285629272461,-0.9586868286132813,0.6288073062896729,0.2243889570236206,0.8981617093086243,0.7467391490936279,-0.46933209896087649,-0.9914393424987793,-0.9540369510650635,0.09610208123922348,-0.7610745429992676,-0.044359564781188968,-0.25404345989227297,-1.009140133857727,-0.9995200037956238,0.6897702217102051,-0.019499868154525758,0.5816631317138672,-0.10588657855987549,-0.49716007709503176,-0.3734339475631714,0.8616325855255127,0.48225876688957217,0.3388187885284424,-0.36894258856773379,0.18072167038917542,0.05975306034088135,-0.2728463411331177,-1.0503169298171998,0.637448787689209,-0.2627936601638794,0.07973241806030274,-1.0558801889419556]}]}