{"inputCount":6,"outputCount":6,"hiddenLayerCount":2,"hiddenNeuronCount":8,"useSoftmax":false,"initRange":1.0,"W":[{"rows":6,"cols":8,"data":[-0.4082754850387573,-0.945772647857666,-0.14424359798431397,-0.03565490245819092,-0.30248773097991946,-0.5276703834533691,0.15266048908233643,-0.550833523273468,-0.801577091217041,-0.17316901683807374,0.44191572070121767,0.8668901920318604,-0.9158408641815186,-0.0073403120040893559,-0.18607795238494874,0.5287187099456787,0.755141019821167,0.98793625831604,-0.16738998889923097,0.962668776512146,-0.005028367042541504,0.9283103942871094,0.9312129020690918,-0.9909384250640869,0.6749580502510071,-0.30131542682647707,-0.9778938293457031,-0.4068077802658081,-0.9513518810272217,-0.0026448965072631838,-0.09420382976531983,0.4903208911418915,0.7879407405853272,0.5220932960510254,0.7875659465789795,-0.8581180572509766,-0.6471641063690186,-0.3744543790817261,-0.8833391666412354,-0.1323148012161255,0.614316463470459,-0.9430184364318848,-0.3659588098526001,0.7892811298370361,0.8763315677642822,-0.7622216939926148,-0.7244751453399658,0.40462538599967959]},{"rows":8,"cols":8,"data":[-0.6303691864013672,0.6130603551864624,0.6488807201385498,0.5783894062042236,-0.4037514925003052,0.5456879138946533,0.4012419879436493,0.6996304988861084,0.796015739440918,-0.774238109588623,0.7646169662475586,-0.051360756158828738,0.4183675944805145,0.04220688343048096,0.8203983306884766,0.47769448161125185,0.287992924451828,-0.30884850025177,0.9913177490234375,-0.39204251766204836,-0.7204375267028809,-0.3878976106643677,-0.37753045558929446,0.6631984710693359,0.4138345420360565,0.6552860736846924,0.9825179576873779,0.473187655210495,-0.3572714924812317,0.5500547885894775,-0.5885756015777588,0.17617690563201905,0.08392965793609619,0.36694571375846865,-0.6241658329963684,-0.26560962200164797,0.49573323130607607,0.5815598964691162,-0.19671738147735597,0.505568265914917,0.4037754237651825,-0.7265801429748535,0.16708576679229737,-0.18791064620018006,0.6806118488311768,-0.5129034519195557,-0.24852502346038819,0.04570209980010986,0.16175758838653565,-0.6456868648529053,0.2583443820476532,0.88446044921875,-0.23920786380767823,0.46741983294487,0.46606990694999697,-0.3266240358352661,0.34548112750053408,0.6304588317871094,-0.19793522357940675,-0.6711499691009522,0.17649567127227784,0.03590881824493408,-0.7932851314544678,0.6392378807067871]},{"rows":8,"cols":6,"data":[0.14133083820343018,-0.049906134605407718,-0.5436427593231201,0.07494866847991944,-0.7066648006439209,0.5779831409454346,-0.6909565925598145,0.8821744322776794,0.3962506949901581,0.32008618116378786,-0.7916216850280762,-0.15384018421173097,0.4705328643321991,-0.747319221496582,-0.3537184000015259,0.6046285629272461,-0.9586868286132813,0.6288073062896729,0.2243889570236206,0.7240555286407471,0.7467391490936279,-0.46933209896087649,-0.9914393424987793,-0.9540369510650635,0.09610208123922348,-0.7610745429992676,-0.044359564781188968,-0.25404345989227297,-0.9978611469268799,-0.9995200037956238,0.6897702217102051,-0.19037854671478272,0.5816631317138672,-0.10588657855987549,-0.728776216506958,-0.3734339475631714,0.8616325855255127,0.48225876688957217,0.5870265960693359,-0.23141539096832276,0.44916650652885439,0.05975306034088135,-0.2728463411331177,-0.7659664154052734,0.637448787689209,-0.2627936601638794,-0.19256222248077393,-0.9870576858520508]}]}