{"inputCount":6,"outputCount":6,"hiddenLayerCount":2,"hiddenNeuronCount":8,"useSoftmax":false,"initRange":1.0,"W":[{"rows":6,"cols":8,"data":[-0.4937530755996704,0.25841376185417178,-0.6447913646697998,-0.42153847217559817,-0.09011662006378174,0.45943447947502139,-0.19703352451324464,0.09274351596832276,-0.37419283390045168,-0.8746641278266907,-0.12828195095062257,0.3828522861003876,-0.32699811458587649,-0.24785888195037843,0.24020135402679444,-0.37981855869293215,-0.933713436126709,0.743361234664917,0.9198272228240967,-0.9031796455383301,-0.3949781656265259,-0.4112245440483093,0.2941703498363495,-0.20222127437591554,0.831566572189331,0.4327668845653534,-0.5962917804718018,-0.33712780475616457,0.9764080047607422,-0.33519208431243899,-0.9417798519134522,-0.44599592685699465,-0.5365266799926758,0.10583555698394776,0.27550455927848818,0.5103726387023926,0.37834927439689639,-0.8039343357086182,-0.7340800762176514,0.0007516145706176758,0.959628701210022,0.11598718166351319,-0.8360435962677002,-0.4243980646133423,0.08246266841888428,0.2602233588695526,-0.8330862522125244,0.002088189125061035]},{"rows":8,"cols":8,"data":[0.3754977881908417,0.14406859874725343,-0.018862605094909669,0.6252062320709229,0.2832445800304413,-0.8708431720733643,-0.8943359851837158,-0.5483359098434448,0.2611355483531952,0.4934644401073456,0.825347900390625,0.042877793312072757,0.32800742983818056,-0.8861484527587891,-0.41393792629241946,-0.37472403049468996,0.7631368637084961,0.8597230911254883,0.43636390566825869,-0.7401973009109497,-0.42955219745635989,0.9745128154754639,-0.24166548252105714,-0.8835978507995606,-0.7824268341064453,0.655806303024292,0.9515719413757324,-0.5382261276245117,0.5283634662628174,-0.7373511791229248,0.1958988904953003,0.4417831599712372,-0.27558791637420657,-0.9356546401977539,-0.22977030277252198,-0.8926857709884644,-0.7071142196655273,-0.6961095929145813,-0.7184863090515137,0.8405075073242188,0.2606041133403778,0.016333937644958497,-0.3481091260910034,-0.652970552444458,0.48108288645744326,-0.16860640048980714,-0.19047915935516358,-0.943655252456665,-0.17744886875152589,-0.032929301261901858,-0.06402504444122315,-0.43646061420440676,0.7633872032165527,0.7792179584503174,-0.730579137802124,0.5651271343231201,0.8189144134521484,0.455060213804245,0.8252525329589844,0.7514324188232422,0.20295917987823487,-0.8375403881072998,-0.6226892471313477,-0.2994345426559448]},{"rows":8,"cols":6,"data":[-0.7135565280914307,0.9993140697479248,0.7581453323364258,-0.9298701286315918,-0.0846632719039917,0.15147936344146729,0.9205911159515381,0.016122937202453615,-0.8663666248321533,-0.3693193197250366,-0.7391977310180664,-0.09567797183990479,0.6735725402832031,0.9237010478973389,0.7243459224700928,-0.15864050388336183,0.11840260028839112,0.0673295259475708,0.12989675998687745,-0.1042553186416626,-0.15179574489593507,0.33888742327690127,-0.540473222732544,-0.24094069004058839,0.42171287536621096,0.3710179030895233,-0.2639046907424927,0.921851396560669,-0.10976231098175049,-0.3835715055465698,-0.2380770444869995,-0.8928542137145996,-0.5160725116729736,-0.8323450088500977,0.681419849395752,0.9656131267547607,0.01907193660736084,0.8709681034088135,0.4400425851345062,-0.5047895908355713,0.19936621189117433,0.4294991195201874,0.26592037081718447,0.8135085105895996,0.3724338710308075,-0.4163731336593628,0.6264395713806152,-0.049399733543395999]}]}